100 10
0 0.5429039 -0.09031111 0.5741419 0.50709456 -0.21326545 -0.16107339 1.3312374 1.9986191 0.199563 0.536333
1 -0.1166431 0.7681795 -0.003524236 -0.4556805 0.87490046 0.41309232 -0.7412522 0.4815244 -1.0702664 0.73958546
2 0.37351435 -0.61747915 -0.5578575 -0.038364485 1.6480974 1.3120121 -0.89331686 -0.3590725 -0.7971058 0.29391456
3 0.7069519 -0.24769127 -0.5656348 0.72638947 0.0045898557 -0.12612772 0.086512044 1.7003078 0.25810474 1.6372132
4 -1.1012731 0.59105396 0.5333035 -1.336195 -0.4096066 0.117716916 -0.9112847 0.99649733 -0.30967247 -0.7343986
5 0.106587805 2.325921 0.17904077 -0.45739472 1.6120932 -0.15672497 0.94225484 -0.49881238 -0.41524974 -0.6881295
6 -0.4354154 -0.6984547 1.5965447 0.74328035 0.6567961 0.24231286 -0.43245745 0.112596065 -0.6288763 -0.7248542
7 0.07945135 -0.14535975 -0.29643294 -0.17422168 -0.7022728 -0.24103464 0.08582735 -0.52979314 -0.008427389 0.36122128
8 0.46208787 -0.3506714 -0.12832251 -1.0120277 0.59411716 0.0069065243 -0.7312402 0.472717 -0.125825 -0.419678
9 -0.33049363 -0.42226368 0.9703478 -0.6309216 0.58934987 -0.85917974 0.39277887 0.27427205 0.77596325 -0.012251943
10 -1.0280323 -0.8237646 0.30592686 -0.102114856 0.37423477 -1.0461338 0.99491143 0.6025013 -0.45560682 -0.604917
11 0.12197615 1.2098526 0.7734286 0.12038191 -0.14829922 0.713595 0.68899816 0.7913707 -0.64080995 0.45222965
12 -0.62931794 -0.14605406 -0.32493606 0.83545846 -0.28321126 0.09707561 0.430877 -1.3653349 -0.31902522 -0.615432
13 -0.41894644 0.26275164 0.76370144 1.2557095 0.8694575 -0.5423027 -0.8882937 -0.8978851 1.1518321 0.95504946
14 0.73499596 -0.48744717 0.46801728 1.9859262 1.1127279 -1.1359475 -0.17165875 -0.74496007 -0.19106817 0.23075025
15 0.9906555 0.67847437 0.9405898 -1.0091544 0.111979425 -0.50253445 0.3357271 -0.42196798 0.4819639 0.7188446
16 -0.69391286 -0.3109845 0.19093636 0.56025946 -1.2094986 0.28865245 -0.17630342 0.08929558 -1.0089499 0.46717674
17 -0.45119017 0.16562629 0.3383008 -0.39714822 -0.013259351 0.555737 -1.0775683 0.17555435 0.49249595 1.0295048
18 -0.12758477 -0.21669923 0.031058192 -0.49987477 0.07486947 0.42557445 -0.24508333 0.83881986 -0.27603891 -0.5602167
19 -0.62551177 -0.13950193 0.013035141 -0.9529752 0.6091269 1.2904466 -0.009329319 0.76616716 -0.12284815 0.34425578
20 -0.53357923 -0.48129174 1.0348395 -0.014690563 -0.18703003 -0.7230444 -1.112213 -0.06783602 0.5497137 -1.7256289
21 -0.08598268 -0.5640892 -0.85135484 -0.4370626 0.6837568 -0.07809792 0.60344136 -2.608709 1.5070006 -0.6528326
22 -0.028898755 0.21395531 0.90027916 0.06332004 -0.9052328 0.42855167 -1.4876381 -0.6429516 -0.0059559345 0.3472425
23 0.016965747 -1.1465347 0.5904206 -0.93447924 1.1155792 -0.25266632 1.5906765 0.8654868 0.11739199 0.073313534
24 0.3164547 0.51459247 0.4055707 0.3706778 -0.22959465 -0.11076772 0.95541954 0.433411 -1.2713933 -1.2224342
25 0.41679513 -0.09560967 -0.1890049 0.45419288 0.9854945 -0.3715878 0.6721883 -0.23992068 -0.613719 0.80332446
26 0.43641263 1.081835 -0.40487933 0.7429463 0.71815455 0.5169358 0.007293746 0.25760412 -1.4070678 0.68417376
27 -0.6262083 0.1419391 -0.5795646 -0.69190615 0.015540477 0.10120243 -0.095400125 1.1559945 0.42245457 0.12018258
28 0.4511904 -0.14705116 -0.27824673 -0.99647784 -0.1990671 -1.2253568 0.3016336 0.5037222 -0.40124032 -0.77139705
29 0.69843334 -0.100061834 -0.6026049 -0.74921554 -0.3542945 -0.037783414 -0.31522584 0.57269794 -0.8017744 -0.1743895
30 0.16764784 1.0809133 -0.067697674 -0.63095576 -1.3658645 0.3705039 0.12362654 -0.14020741 -1.3936694 0.1941801
31 0.18137038 -0.014392614 0.13512367 1.1119372 -0.3292117 -0.75742316 1.0372254 0.38239077 0.7904147 0.482488
32 -1.1872079 -1.0573431 -0.87912285 0.52711207 -0.3139045 0.4086169 0.13406087 1.2135016 -0.23475951 -0.69446516
33 -0.1247032 -0.47321868 -1.4175512 0.31799665 0.3081742 0.45446572 0.9117203 0.04904455 0.8547778 -0.9877551
34 1.0285039 0.52631027 0.6506997 -0.105319336 -0.18043423 -0.52573013 0.8608925 0.09289573 0.56494105 0.27085033
35 -0.81516445 0.56347454 0.3988701 0.48691705 -0.07395375 0.038046952 -0.6556196 -1.5115254 0.71146405 0.39364016
36 0.57922435 0.50706553 -0.42813677 -1.5472145 -0.7126584 0.5642146 0.53765786 0.9004446 -0.11558932 0.2576292
37 -0.39612117 -0.23867798 0.45900252 1.6818163 0.8210855 0.94450474 -1.3999993 1.4550139 0.1391212 0.116048545
38 0.16523407 1.6971748 -0.08000967 0.90208703 -1.0485101 -0.6553416 -0.19158822 0.06843206 -0.70432115 0.47948417
39 1.2316029 0.3985262 -0.49746135 -0.23703928 2.1443102 -0.95225346 -0.07474616 -1.0973064 -1.3014327 -0.15405947
40 -0.43821758 -0.67222995 -0.33296996 -0.7294694 0.43056703 -0.28671327 0.01691866 0.14550316 -1.492603 0.37020656
41 -0.078379534 -0.5174395 -1.1911111 0.34760702 -0.24786168 -0.95736223 1.5950849 -0.9087943 0.29347122 -1.0956019
42 -1.1901093 0.45886573 0.35926032 0.7042199 -0.6704739 -0.35065433 0.55933315 0.5093913 0.5605073 0.37185708
43 -0.00395979 0.6290938 -0.5380561 1.279144 -1.681709 -0.41988578 0.74293035 1.3758662 0.1337116 -0.78205055
44 -0.9304369 0.17298253 0.2858393 0.094210744 0.41504407 -1.1952136 -1.0463864 -0.28617892 0.4555719 -0.20004141
45 -0.74523044 -0.028193653 0.0703854 -0.63412124 -2.151893 -0.11586888 0.69387746 -0.371277 -0.46703658 0.9743128
46 0.67837226 -1.1590877 0.11066899 -0.3670644 -0.40075213 -0.7015721 0.41963398 -0.96795034 -0.19323146 -0.6087066
47 0.0077382624 -1.1223431 0.896674 -0.17209342 0.27608347 0.037227213 -0.9471446 -1.6734127 -0.8482251 0.12560233
48 0.22085747 0.43615457 -0.11937308 -1.5792053 -0.02971226 0.0024011433 -0.9163938 -0.10403902 -0.21720585 0.42747778
49 -0.18594354 0.7377586 1.3359425 0.35651326 0.58102494 -0.1343789 0.6183426 0.88055813 0.9748558 -0.70151484
50 -0.43243968 -0.25303268 -0.4459148 0.037695706 -0.05762829 0.15310922 0.58401495 -0.46319 1.0925457 0.4211693
51 0.52225447 0.31882256 -0.05577025 -1.6862111 -0.46347237 0.39713216 0.64696276 0.89005107 0.46063548 -0.6734915
52 -0.7340207 -0.55987334 -1.0923369 0.25426483 -0.647743 0.11087376 -0.117365204 -1.1969069 0.4127532 -0.8910103
53 -0.06780977 -0.6619743 1.1199896 -0.5168663 0.14566198 0.7313464 -0.9872937 -1.3495336 -0.1697958 0.3524689
54 0.41963017 0.6908569 0.052372456 -0.39030212 -1.2635058 -0.49084353 -0.66201913 0.5582615 0.36399394 -0.11935959
55 -0.68263584 0.16784471 -0.835374 -0.4836246 -0.3752859 -0.18744923 0.11348641 0.9051045 -0.4712904 0.56088746
56 0.5792115 0.4011202 -0.17868786 -0.05286847 -0.1560196 0.34090537 -0.17895529 -0.97233814 -1.4370587 -0.8774057
57 -0.8284729 1.9136827 1.2595431 -0.8391725 -0.55848557 -0.3587132 0.17678459 0.75906515 0.19271266 0.6736432
58 0.542388 0.22295567 0.20492738 0.037078798 -0.38694233 0.7873515 0.53658617 0.30476826 1.422111 -0.34301192
59 1.0499508 -0.16217491 0.54066646 1.1744376 -1.1992283 -0.06500581 0.3684128 0.9474267 0.68426526 0.23319475
60 -0.4354776 0.70170796 -0.21789996 -0.015164077 -0.95853144 -0.9301308 0.26446858 -0.20847832 -0.18358803 0.35796493
61 1.3496118 0.99508405 0.62559843 0.3220506 -0.33338702 -0.31978148 -0.56219953 -0.48819757 1.2212117 0.0074825585
62 0.5358829 -0.27453798 -0.007888034 -0.13392466 -0.12503266 0.8670212 -0.34508425 0.7455585 -0.74439955 0.16459502
63 -0.24552861 1.5196232 -0.53307277 1.7553377 -0.30077213 0.960464 -0.18221977 0.3755525 0.8689575 0.90194917
64 0.34405676 -0.6757624 -0.08009523 0.96653515 0.11625369 1.3259389 -0.13252342 0.5417911 1.1031526 0.04204911
65 0.68226147 -0.13454546 0.5918909 -0.0402869 -0.48149303 0.15532891 -0.7595583 -0.87747043 -0.04198353 0.3250774
66 -1.8175613 0.2751872 1.1491203 -0.2550075 -0.25359458 -0.8653747 -0.6706409 -0.16472048 0.354689 -0.8218657
67 -0.7379532 0.37085408 -0.17277169 0.45245463 -0.27312556 -0.50907993 0.72013867 0.30898654 0.47989926 -1.0331104
68 0.052967824 0.09813314 -0.10101952 -0.9495233 0.86512697 0.7187939 1.1463022 -0.6554166 0.014667276 -0.018130481
69 0.66811645 -0.5576699 -0.07997465 -0.39703327 -0.98417526 0.74528396 -0.42828786 0.45754308 -0.29181287 -0.22171569
70 0.038274497 -0.23701532 -0.44229224 -0.9505 1.1901481 -0.3272833 -0.29699674 -0.94855607 -0.5281791 0.5753796
71 0.5206999 -0.7552713 0.105422705 -0.65235823 0.0364025 -1.159319 0.6772891 0.1149846 0.102924705 1.0577786
72 0.24511546 -0.4464028 -1.2358809 -0.32312354 -0.9659189 -1.0382632 0.47711098 0.14693588 0.38929987 0.063702956
73 0.51698655 0.08113204 0.43737847 -0.5582792 1.1406366 0.9052453 -0.89965475 1.2936438 0.7275849 -0.00896427
74 0.36335945 0.92777824 0.8106797 -0.7748651 0.571156 0.27188504 -0.57986784 0.6456775 -0.08132392 0.70410967
75 -1.1513901 -0.6989801 -0.51571643 0.4076865 -0.10330024 -0.7423936 0.079705834 0.22513092 0.89321375 0.5555247
76 0.29605183 -0.0005096644 0.40907514 -0.10200751 0.4975442 0.13652258 0.052446276 -1.1704615 0.3292781 -0.7062125
77 -0.34561974 0.015949162 0.48251107 0.40278366 0.5836103 -0.25134492 -0.5573875 -1.0116718 0.9821954 -0.1356476
78 0.89455235 -0.26501125 -0.10665454 0.514379 0.4367587 -0.0501419 -0.609452 0.72558147 -0.0990023 -0.56541294
79 -0.6943018 2.183352 -0.43757412 -0.44646442 0.36340666 -1.244201 -0.38386592 0.3445748 -0.6918594 -0.9561796
80 -0.47261664 -0.18502957 -0.15747976 0.46061215 1.0176029 0.4771714 -1.2921889 -0.2899392 -0.13398945 0.24645811
81 -1.1293203 1.3486841 0.79546094 -0.68786395 -0.6440305 0.6197818 0.043453455 0.6311483 -0.17774391 0.1595883
82 -0.74580574 0.19679871 1.0721451 -0.12643571 0.65059125 0.71047795 -0.49697313 -0.042864025 -0.631927 0.5691978
83 0.3762914 0.6321204 0.5956401 0.40738493 0.19453037 -0.5567408 0.578444 0.0738554 -0.36807212 0.7871479
84 0.5146655 0.71601194 0.26128605 0.43870172 0.1160852 -0.11565253 -0.3389553 -0.69244754 0.23078558 0.069982216
85 -0.31883708 0.37432203 -0.46589857 0.110227585 -0.6487694 0.3541808 0.75117326 -0.2083024 -1.4825182 -0.26564953
86 -0.32946873 0.49457556 0.6519159 -0.79644346 1.2332426 0.13721383 -0.25437874 0.09032901 -0.17375839 0.84113264
87 1.4948208 -0.21872383 0.41435722 1.1319226 1.3046376 -0.12378642 -0.27787077 -0.71990657 -0.41077745 -0.046424747
88 1.1609902 -1.0305433 0.6231642 1.7884755 0.3360144 0.40752834 0.11457929 1.2937099 -0.23808523 -0.7224019
89 -1.4407178 -0.06745157 0.20217952 0.1580295 -0.12956432 -1.2153071 0.11393309 -0.5541792 -0.24644312 0.59487545
90 -0.1917929 -0.2714624 1.0001177 -0.7186735 0.20464206 -0.09625039 -0.03461781 -0.5914003 -0.5240151 -0.25219333
91 2.0000358 -0.5061208 -0.8970734 -0.6499806 0.16603157 -0.0743843 0.2857743 -1.119181 0.52786905 1.3643296
92 -1.583308 0.95368844 0.49475646 -1.5920002 -0.50286925 -0.8665079 0.6303226 0.49691534 1.2338586 -0.11665676
93 0.21868926 -0.92611396 0.10306528 0.19440897 -0.07083595 0.46458277 1.0722158 -0.7334902 -0.42921758 0.4391246
94 -0.12113781 0.8318599 0.19649796 -0.476942 0.75474286 -0.5237924 -0.8083225 -0.27884233 2.0243304 -1.0558926
95 -1.0331144 -0.4629847 0.5008286 -0.8370837 0.43677267 0.6332878 0.071260154 0.38401303 1.1077485 0.38084918
96 -0.7649372 -1.5529246 1.6713458 0.036364734 -0.12760258 0.3511325 0.37365666 -0.6626002 0.12062152 -0.25301653
97 0.5988914 -0.7367158 -0.49828145 0.13606305 -0.17293616 -1.6306129 -0.122757494 -0.122479826 0.9776727 0.7084996
98 1.286999 -0.7049501 -0.06627448 -1.2603741 0.60006434 -0.40987796 -0.087801635 0.25219873 -0.3842212 1.7891909
99 0.5642139 -0.225999 0.884625 -0.046805024 -0.13337314 -0.79672426 0.18210892 -1.4503608 2.131764 -0.14231962
