100 10
0 -0.01877062 -0.003258106 0.025620176 0.040344384 0.012086314 0.017186588 -0.0068154815 -0.03713063 -0.046507593 -0.0375166
1 0.04537945 -0.04923322 0.039575934 -0.046794273 -0.012386948 0.048114266 0.0010616422 -0.020608768 -0.034990277 -0.049013454
2 0.01466201 0.009028733 -0.04735556 0.02113272 0.04387637 -0.046236996 0.04150184 -0.026845744 0.049511887 -0.045703053
3 -0.035807997 0.0408574 0.02322656 0.03386509 0.004980558 0.04317254 0.038158335 -0.032374438 -0.01024803 -0.045356184
4 0.034897417 0.041085433 -0.010480821 -0.011861158 -0.01095813 0.035764463 0.03247499 0.023753857 0.012979651 0.039038897
5 -0.013815904 -0.047866464 0.04469013 0.04227035 -0.03191114 -0.04107509 -0.04756775 0.026463186 0.0032778382 -0.02813793
6 0.027011711 0.032392442 -0.0038250776 0.010179872 -0.02797214 -0.010085562 0.015481263 -0.035401717 -0.0068539414 -0.04306287
7 -0.02786413 0.041027274 -0.026824405 0.018436968 0.02920779 -0.027185837 -0.03669205 -0.022201318 0.037089963 -0.039053198
8 0.036142696 -0.011116442 0.015395206 0.00953995 0.017320186 0.0252909 -0.012323595 -0.024260402 0.02099957 -0.02858856
9 0.0082306685 0.018038524 -0.01223844 0.01875685 -0.004594815 -0.0057946504 0.03773073 0.0263133 -0.04806259 0.0032942116
10 -0.049804453 0.028882688 0.015895104 -0.03241001 0.04668505 0.035394847 -0.03913437 0.024789274 -0.013482523 -0.04647921
11 0.01944831 0.016625864 0.011973388 -0.040871397 0.0049217227 -0.0024809183 -0.025012484 0.036527466 -0.0075414837 -0.017338613
12 -0.0061063706 -0.024083463 0.03999991 0.034590006 -0.017264877 -0.0036892325 -0.034416 0.013791758 -0.049503453 -0.023983141
13 0.045164134 0.0042221486 -0.028219743 -0.015752792 0.02276646 0.039584566 0.017454118 0.022249853 0.04722032 0.044498604
14 0.035146613 -0.026193703 0.004493183 -0.015373224 0.03699695 0.047347493 -0.007818547 0.030268544 0.035242863 0.0077533782
15 -0.022405759 0.009741562 -0.022770716 -0.04889557 -0.008957678 -0.012795404 -0.015742505 0.03842718 -0.012201882 0.034221094
16 0.048494603 0.007839913 0.0039176526 -0.023367813 -0.04041033 0.019181943 0.019196708 -0.028564688 -0.029469319 0.026717847
17 0.04505024 -0.006289509 0.0468206 0.015755106 -0.037151154 -0.035423398 0.011279571 0.04530198 -0.042927295 -0.004217446
18 0.023303246 -0.00048796833 0.037803173 0.014890081 0.030376488 -0.039739273 0.026236285 0.01565352 -0.014855072 0.023121208
19 0.020696515 -0.008729241 0.00064226985 -0.026468059 0.042157155 -0.004572311 -0.033802986 0.047659706 0.022105677 -0.03237679
20 -0.013780052 -0.0027266503 -0.010914067 0.04296993 -0.042165175 -0.026939422 -0.016594214 0.009701359 0.02484032 0.0058217826
21 -0.031821243 0.026915908 -0.031024195 0.033941355 -0.03606007 -0.030019665 -0.004361439 0.04888585 -0.035225146 -0.010346812
22 0.013566774 0.0015908898 0.04830366 -0.010528279 0.026283437 0.033907223 0.032774657 -0.041476946 -0.02484659 0.027346969
23 0.015685279 -0.017781762 0.0012109041 0.0048098206 0.04160577 -0.012760398 0.02106673 0.02265851 -0.035947982 0.04391272
24 0.04667009 0.04686884 -0.009707609 0.006068188 0.006485987 0.027259095 -0.042840824 -0.00700396 0.025441606 0.0068858503
25 0.0055791917 0.026447756 0.0020342588 -0.048026722 0.038233515 -0.014866403 0.036291517 0.016855031 0.020238174 -0.018227858
26 -0.0418949 -0.030014504 -0.008322254 0.010999572 -0.03575975 -0.00035216808 0.0059004663 0.04955694 0.0031872808 -0.001258725
27 -0.023585705 -0.020609776 -0.041747253 -0.013928252 0.03894181 -0.007229784 -0.008643138 0.027710622 -0.032681007 -0.049497176
28 -0.04882551 0.0067023397 0.04642853 0.015621793 -0.008486119 -0.008347544 0.030440837 0.0300829 -0.012133107 -0.01750881
29 -0.003231162 0.013081729 0.04864016 0.04547087 -0.008122009 0.00952208 0.046768337 0.0015113413 -0.0060726525 -0.028373664
30 -0.041140463 -0.008120137 -0.0008384079 0.04684279 0.0050631226 0.049835514 -0.029208867 -0.027313756 0.026464224 0.03686737
31 0.012536186 -0.03476021 0.01546514 0.0026693703 -0.03457937 -0.04667239 -0.024463776 -0.015260098 0.027684523 -0.026409714
32 -0.00987078 -0.03929748 -0.027654355 0.007413268 0.036190093 0.02279802 -0.0038716197 0.035991367 0.012303638 -0.036992002
33 -0.034189362 0.006121999 0.0044679167 -0.033547543 -0.033802535 0.0036864697 0.049985755 0.03560101 -0.04413285 0.026354486
34 0.022784084 0.016657501 -0.0013042241 0.028309543 -0.037408084 0.02006632 0.004744315 -0.009515134 0.025011076 -0.000120404366
35 0.04451951 -0.0115605 -0.040576685 0.049471434 0.01020931 -0.0022730827 0.038384754 -0.012355611 0.033135574 -0.009360301
36 -0.049496315 -0.04136352 -0.024879728 0.042741 0.04411129 -0.01354818 -0.006897402 -0.0025044798 -0.0090025095 0.036070276
37 0.027440364 -0.033192135 0.022178454 0.015673846 0.02776214 -0.028385878 0.03422174 -0.04422683 -0.0029806315 -0.03191429
38 0.0056254687 0.015698118 0.020191664 -0.036612608 0.006031853 0.036434628 -0.009190956 -0.04003248 0.04172961 -0.043952238
39 -0.047897443 0.04685424 -0.031411912 -0.025920719 0.0019804954 0.025676608 0.009566582 -0.032312777 0.014849216 -0.0071141454
40 0.03380912 -0.031269435 -0.047273304 -0.0012422204 0.018717587 -0.007414389 -0.0028960407 -0.013213957 0.03652493 -0.024673337
41 -0.004836774 0.038346585 0.012274409 0.042936213 0.006088567 0.04239021 -0.007088244 -0.020509308 0.011825246 -0.04942242
42 0.017027749 0.025569422 0.025086487 0.037336644 -0.013059652 0.041873988 -0.0047477423 0.011110663 0.012181455 -0.018376812
43 0.034782447 -0.027901463 0.00049884914 0.017036362 0.0020681918 0.012017953 -0.029850004 0.035883773 0.048265316 -0.041572463
44 0.010312862 -0.016990293 -0.040756464 -0.0015016228 0.0379084 -0.037955884 0.0066288533 -0.039166 0.03906339 -0.0052601546
45 0.049914207 -0.04296167 0.026983691 -0.027261816 -0.0016445875 0.036045738 -0.043665174 -0.006065819 -0.0067566964 -0.012151015
46 -0.0074571073 -0.02597021 -0.022944162 -0.007807195 0.030661656 -0.002367726 -0.04122995 0.03331966 -0.030085878 -0.009184304
47 0.021728426 0.04358334 0.019167233 -0.049850818 0.0030166327 -0.028831562 -0.013944062 0.016613651 0.016208803 0.02871471
48 -0.04932149 0.034089983 0.009587931 -0.046626024 -0.04376098 -0.022842202 0.014687801 0.024270922 -0.0028244646 0.018802686
49 0.0051581203 0.036183406 0.015433586 0.0060546817 0.011303973 0.008239192 -0.003059584 -0.044920754 -0.009095827 -0.047121853
50 0.011218465 0.024780238 0.04521941 0.014514458 -0.020499354 -0.010171264 -0.019845827 0.03311031 -0.0383084 -0.01876388
51 0.03530869 0.03653997 -0.039182007 -0.02136271 0.03844681 0.027312761 0.007172048 -0.029226037 0.049066376 -0.039601263
52 -0.04140757 -0.020788873 0.016229665 -0.01903505 0.022756679 0.04713261 -0.008342299 0.020482367 -0.014371532 -0.00540984
53 0.00044237377 -0.046221156 0.00339337 -0.024419462 0.022503942 -0.023805803 0.048053425 -0.021444637 0.013451827 -0.015294057
54 0.012857688 0.023910178 0.014036524 0.03576528 -0.013801587 -0.03527261 -0.03637862 -0.042690586 -0.04519101 0.016674949
55 -0.023013357 0.002719933 -0.004562819 -0.041958854 -0.017515598 -0.023629893 0.034037907 0.03243609 0.031162007 -0.03404202
56 0.022189707 0.037612017 0.048888337 -0.0051363944 -0.039614335 -0.04983376 -0.038390085 -0.046555452 0.013948279 0.024034714
57 -0.0063208463 0.0023559988 -0.009337044 0.011320489 0.023911316 -0.016953057 -0.023026168 -0.0074165403 0.028619993 -0.0022683025
58 -0.02506046 0.03193022 0.04279201 -0.045196474 -0.013914788 -0.03574753 0.049757022 -0.026950238 0.03526413 -0.0074079665
59 -0.013285607 0.008792925 0.011549878 0.046017565 -0.04793973 0.013022834 -0.040328994 -0.019728536 0.002303052 0.0024586082
60 -0.0004570067 -0.016832337 -0.039757542 -0.012746978 -0.033970844 -0.016595313 0.01655497 -0.0063978643 -0.028105818 0.0046369615
61 -0.010197366 0.022806978 -0.0030173124 0.019747932 0.032108843 -0.00201315 0.007921142 -0.041098528 -0.028458267 -0.039995458
62 -0.029696217 -0.02537575 -0.031865377 -0.0027148426 0.049376715 -0.048596427 -0.008808157 -0.0029910447 -0.026115017 0.049123026
63 0.032780524 0.048609328 0.045829892 -0.03573062 0.017548501 0.024472147 0.049908906 -0.034457106 -0.024726985 -0.045940846
64 -0.018766785 -0.018758485 0.025741113 0.0064397454 -0.03629269 -0.04301026 -0.046169106 0.018563068 0.0005357742 -0.0001229614
65 0.0048579695 -0.03904307 0.027861118 -0.010188574 -0.041619897 0.04638365 0.027803034 -0.03929155 0.0009103835 0.03567635
66 -0.04437179 0.005362493 -0.009168619 0.01795491 0.001959145 0.046939105 0.04779717 -0.020242754 -0.040422603 0.045394626
67 0.002269119 0.0037246465 -0.01608944 0.023336237 0.024754692 0.03889965 -0.022327367 -0.0041231005 0.01956432 0.0033502819
68 0.045315977 0.009547323 -0.0048003644 0.019471938 0.02577051 -0.0030732364 -0.049190734 0.019001871 0.0100174425 0.044093836
69 -0.03281014 0.021337314 0.02772287 0.04127395 -0.017640656 0.012888664 0.021741843 0.0327118 0.027533794 -0.0021693648
70 0.028389955 -0.01566854 0.009624816 0.04876023 -0.008668902 0.02656368 0.039893623 0.039439738 0.04032752 0.049425323
71 -0.032082535 -0.037311275 -0.0039568455 0.048177715 -0.042630184 0.036923975 -0.028444735 -0.012001306 -0.040625565 -0.038550787
72 0.00824278 -0.037500553 -0.04035639 -0.025462238 0.0063364687 -0.012949365 -0.016068736 -0.0120248115 -0.013989118 -0.0030384273
73 0.047908958 0.03193104 -0.02424044 -0.028763613 0.047018357 0.016171385 -0.038746644 0.0013000846 0.009479946 -0.037252124
74 0.03209999 0.008678514 -0.031562593 -0.025303494 0.0028975846 0.013870734 0.02773285 0.0022290112 -0.040602475 -0.038000274
75 -0.004096091 -0.015382123 0.01236214 0.03528238 0.02344432 0.0075800717 0.016892452 -0.025170302 -0.0035204203 0.022132087
76 0.01459629 -0.029072432 -0.02183705 -0.028810035 -0.014402377 -0.0143357515 0.016476864 0.00396263 0.025307972 -0.037387174
77 0.0037264049 0.049743343 0.00052184466 0.032040983 -0.0057588606 -0.024667138 -0.020557944 0.045474447 0.034263242 0.02771774
78 -0.011140811 0.032286104 0.0064184368 0.025041932 -0.004207981 -0.024045367 0.02647074 -0.03971991 0.0020740093 0.026979435
79 0.014646572 -0.038851924 0.004301989 -0.012583402 0.03611436 0.030992432 0.0021232844 0.02627492 -0.0037198723 0.022234077
80 -0.019790767 0.0054298104 0.0079307435 -0.009140352 -0.038612727 0.04717573 0.0034224035 -0.01590854 0.0011546671 -0.038437296
81 0.042770308 -0.031084623 0.019383026 -0.0152349025 0.047445457 0.019582642 -0.041889716 -0.037855234 -0.00916411 -0.02550989
82 0.02519018 -0.029202782 0.0131369 0.022931147 0.014894671 0.03894015 0.04311617 0.046034377 0.014821994 0.026639098
83 -0.040363424 -0.002582696 0.042235833 0.018394912 0.0024547935 -0.038285855 0.00071211456 0.0322931 -0.036314126 0.008012885
84 0.0019890189 0.018127615 0.032783933 -0.003310445 -0.03773013 -0.0030447037 -0.046791423 0.028763581 -0.028683927 -0.027249416
85 -0.016145846 0.012933845 0.045515813 -0.019185085 0.038467385 -0.017549738 -0.025350789 0.03246026 -0.040187906 -0.018614491
86 -0.026680749 -0.032787714 -0.021287024 -0.007667476 -0.030507876 0.042758442 -0.028752094 0.027476227 -0.024402935 0.02937227
87 0.004510337 -0.001661703 -0.012147811 -0.0072624357 -0.0072674574 0.042306967 0.020141138 -0.04486251 0.04452334 0.038568225
88 0.004079384 -0.02050583 0.00077899697 -0.034679074 0.015961498 -0.010260284 -0.03847385 -0.008423987 0.015016431 0.03355481
89 -0.049932804 -0.031649224 -0.021878446 -0.0030025989 -0.04106469 0.009484947 -0.02645064 -0.018891806 0.025620056 0.011330748
90 0.0015140057 0.032242216 0.04172763 0.00077261927 -0.014196262 0.011262453 0.0038425445 0.0019548894 0.008844811 0.010091007
91 0.035991102 -0.046965953 0.014145118 -0.009348742 0.03434176 -0.04359783 0.014066947 -0.013028753 0.012939257 -0.04881334
92 0.04183935 -0.018212581 0.0062613487 -0.049386263 -0.0470398 -0.029528009 0.04923457 0.008605319 -0.005103958 0.001346767
93 0.020879066 -0.049650807 0.009391916 0.046382874 -0.00550904 0.0016848743 -0.007890344 0.034715112 -0.0043831556 0.020148678
94 -0.03428472 -0.043102518 -0.02189495 0.034073263 0.036876936 -0.008819851 0.010521233 -0.009641093 -0.012494248 0.037153807
95 0.0048000454 -0.03675799 -0.024784625 -0.030824669 -0.020729983 -0.029310947 -0.036579315 -0.01444929 -0.0042447536 0.03731504
96 -0.019765321 -0.041695848 -0.046668667 -0.04495955 0.012298263 -0.022615109 -0.006990537 -0.008737827 0.020672107 -0.013389436
97 -0.002605003 0.0076027154 -0.030556595 -0.0077470215 -0.038134847 -0.034255236 -0.012569931 0.01331085 0.022638917 -0.04005929
98 -0.007620388 0.013980395 -0.025013153 0.021246297 0.037840094 -0.0022180856 0.039499816 -0.026757691 0.033873625 0.039471656
99 -0.027119793 -0.026032332 0.012557596 -0.020107388 -0.024951577 -0.0051475703 0.030277902 -0.038049374 0.0060532214 0.016437365
