100 10
0 0.5071402 -1.0045936 0.8256404 0.9003706 -0.2827606 -1.0540797 -0.16680832 0.11254756 1.2056618 0.9047949
1 -1.1264087 -2.659163 -0.039301176 -0.6285853 -0.8863955 -0.6698475 -0.2658081 -1.5859495 -1.7252606 2.039467
2 -1.1835914 0.10569455 1.0737846 0.8353136 -1.072225 0.7275163 0.14515108 -0.15125766 -1.4517767 0.61739594
3 1.0270888 -0.24823429 0.8345768 0.0151040135 0.9407256 -0.38882208 2.3352432 0.96613926 2.3736997 0.13607259
4 0.95188713 1.6584909 0.7485349 0.81279284 0.33257443 -0.3066903 0.776739 -0.47245544 -0.37462106 2.6368802
5 1.0991589 -1.112172 1.8113751 -0.34763634 1.0477126 1.9813066 -0.6187173 -0.1577512 -0.15326415 1.3447094
6 0.14124908 -0.401441 2.3999047 0.4415529 1.6093637 0.5449741 -1.5983337 0.5088411 -0.16717973 0.17273578
7 0.2552983 0.18078595 -1.0772018 -0.52637756 0.84064335 -0.25383946 -0.41481227 -0.16261135 -0.4430426 0.8636589
8 0.36813712 1.0238224 -1.8473103 -0.57510334 2.494008 -0.30447593 -0.46521106 0.23895387 0.7576687 -0.5249961
9 -2.444706 1.0034868 -0.56811744 -1.3229934 0.3927255 1.271038 0.6813272 -0.6644698 -0.691457 0.7484976
10 -0.83433163 1.1317581 0.028859489 1.0935799 -0.36471248 -0.48092994 -0.6770734 2.2721035 0.061176907 0.50547045
11 -0.63440526 -0.42390582 -1.15456 -0.34926388 -0.21634865 -0.45089382 0.76906383 -0.62180763 -1.1626753 1.1851091
12 -2.0268452 -0.846164 -0.15865791 -0.68803316 0.87113005 -1.2828315 0.22526771 -0.8941277 -0.5161336 0.42428666
13 1.2646788 -0.47557312 -0.7065895 0.4511307 -0.15768693 0.5673614 0.8734972 -0.42502755 0.5628017 0.35577068
14 0.21495898 1.2328169 0.22530784 -0.33656025 0.3629794 2.082953 0.8867568 1.076978 0.4285248 0.0026595253
15 0.11435904 0.33573586 -1.3680534 -2.0675995 -1.2230511 0.29028895 0.81904846 -0.32162467 0.6737869 1.9012173
16 0.08630073 -1.5990777 1.2816738 0.22657692 1.1103884 -1.2749919 -0.5284597 -0.43761173 0.20483565 1.6538055
17 1.4707574 0.1919364 -0.7237502 -1.345236 -0.34608102 0.016008085 0.5383733 1.1140461 0.33736044 0.51511264
18 2.1163287 -1.5373217 0.36906528 0.6957315 -0.4331482 0.42247322 0.9676899 -2.0822215 -1.4068469 1.6104364
19 0.48799154 -2.7588305 -0.31344742 -1.6073703 -0.39023328 0.105104126 -0.65403277 0.045227684 -0.62608176 -1.1168549
20 0.41250685 1.235441 -0.3195862 1.6663826 -0.4873216 1.0688657 0.89204043 1.3150302 -0.07841277 0.3351163
21 0.34489948 1.0083902 -0.43914312 -0.06333282 -1.5574982 0.65205336 -0.44503486 -1.0393723 0.6447005 1.2446725
22 -0.7617739 0.025351383 -0.058268458 -0.77249986 -0.05780709 -0.11377558 2.0419688 -0.49415037 -2.0288568 1.930567
23 0.81862944 -1.1438998 1.4422548 -2.316445 1.2930529 0.42507675 0.19339399 0.6103313 0.015395015 -2.742615
24 0.5075823 -0.4875098 -0.99332184 -1.5006728 -0.72196245 -1.7893528 1.5503665 1.4091039 1.5074266 -0.25606227
25 -0.40532386 -0.4557766 1.5616757 0.457861 -0.36375803 0.8436285 -0.044841625 0.29056004 0.23527443 -0.48115772
26 0.2061797 0.83213735 -0.2646318 -1.8100893 0.13831227 2.1986 1.2504116 0.39222264 0.8086785 -1.093325
27 -0.6459085 -0.7775775 0.26213333 -0.36935836 -0.49131012 1.6887453 -0.6354734 -0.4485972 -0.6752134 -1.3120886
28 0.55613106 -0.40452924 -0.97787523 -0.371376 2.7151005 -0.23260266 -0.025378317 -1.1396799 -0.64943016 0.3106851
29 2.719686 1.429213 1.2319051 1.380388 -0.29080874 -0.350708 0.30474547 0.39544716 -0.7131514 0.4858054
30 0.69340616 0.705474 -0.47719666 0.5881553 -1.5248853 -0.25338966 -1.0310626 -0.3584528 1.2863532 -0.54633355
31 -0.106326476 0.1956401 0.57975966 0.19704427 1.2700567 -0.79425716 -1.0057579 0.18666902 1.3534241 -0.9016899
32 -0.53301144 -0.57737213 -0.12838922 1.231366 -0.09447482 1.1700597 -0.4202485 -0.51365644 -0.85945106 -1.0166706
33 -0.72983897 -1.670153 -0.13623644 -0.7028265 -0.7460072 -0.65655077 -0.48036233 0.66564554 -0.65786856 1.8687817
34 0.7079406 -0.27856666 0.812809 -0.1767448 1.6948953 1.6178821 -1.8987515 0.577365 0.07226986 -0.018305438
35 -0.9255055 0.98348194 0.08847685 0.7699357 -0.1578138 0.50033194 -0.8202058 -1.1113274 -0.07264668 -0.37220168
36 -0.35769802 0.116873644 0.58326477 -0.45770702 -0.3741543 -0.9234733 -1.7949578 0.7116959 -0.6284948 -0.6707691
37 0.8516329 -0.7086833 1.2635483 1.7417542 0.19878992 -0.12020565 -1.6299313 -0.2502259 0.02054771 -0.22145225
38 0.4211786 1.4872706 -0.08817526 0.18705688 0.1346113 0.08929189 -0.5938074 -0.097587876 -0.5251301 -1.5414735
39 -0.36281806 -0.6540745 -2.6640384 0.6881856 -0.31683886 -1.2722945 -0.019435816 1.5126652 0.014981983 0.11362083
40 0.1288877 -1.1057391 -0.047479562 1.5021873 0.6443858 -0.15566805 0.98224336 -1.1393994 -1.5817603 0.5384626
41 -0.06948755 -0.33721378 -0.59348214 -2.2890937 0.86822224 0.64529884 0.6817913 -0.73758775 -0.60711634 0.30688435
42 1.4857608 -1.7684343 0.69609416 0.028832894 1.0796596 -0.6483685 0.7869698 -1.8114053 -0.29859224 -0.5030955
43 0.44887042 -0.0225325 -1.6190716 -0.51066494 -0.7309932 -1.2057986 0.80694705 2.4842908 -2.1628766 0.76001775
44 -0.715372 0.07976497 0.10459766 0.7290389 0.70838 2.483837 -0.4021959 2.3535862 -0.40337875 -0.109595746
45 0.9653719 0.86356616 -0.50602895 0.61608875 0.12759311 -0.21393834 1.3396382 -0.053110253 -0.68812597 1.1167469
46 0.47777152 -1.4452534 -0.8936225 0.35696656 -1.0668186 1.7041377 0.063026264 -1.3153063 -0.58778644 0.34184474
47 1.0541434 -1.146742 1.3669455 1.2260057 -0.19617471 0.909731 -0.7780231 -0.67508274 -0.9643578 -1.5207725
48 -2.001278 -0.5740873 0.51252633 -0.3944483 -0.25154132 -0.15186878 -0.72477835 1.0088142 -0.005613286 -2.3776603
49 -1.4698892 -1.8453918 -1.0370574 -0.7677422 1.2849768 0.09786666 0.3585894 1.5672607 0.6500161 1.0573304
50 -1.9215207 2.1934416 1.0774913 -2.3454058 1.0567493 -1.1469302 -1.8940248 -0.59827167 -0.46748686 0.6390386
51 -0.38369265 0.046445336 0.052637655 0.58430904 1.2049521 0.6978029 1.2380449 -1.1273217 1.477393 -0.48826525
52 -0.4001803 0.8933342 -0.15249681 -0.8494862 -0.08696575 -0.46978122 1.1621046 -1.7512727 -0.8322841 -2.0176253
53 0.42974156 -0.37927738 -0.8957543 -0.7885958 -0.69077116 0.09694995 -0.29389775 0.68419677 0.10747466 0.057228945
54 -0.96108854 1.5854094 -0.3183101 1.025596 2.4864948 1.315899 -2.309793 0.049779784 -1.1525682 0.94320107
55 -1.2709436 0.73053306 0.6232383 -0.7846302 -0.6978455 -0.3616022 0.5360507 0.114017546 0.8248859 -1.1389028
56 -1.5535654 0.7826036 1.2032875 -1.1335137 -1.421793 -1.1048604 -0.969893 -0.15027976 0.79955786 -1.439379
57 -1.3031138 2.0773196 0.40332067 -1.1798122 1.1887702 0.6182521 1.0716177 -2.4533734 -0.017054683 0.18080993
58 -1.2981119 -0.24754646 -0.13718827 1.6520272 0.39136028 1.0023146 -1.2889861 -0.25896278 -1.6138457 -0.4935167
59 -1.8150479 -0.60409635 1.5117033 1.658293 0.21640155 0.66871804 -0.84035367 -0.5742667 -1.2020243 -1.5352937
60 -0.10051311 -1.1015637 0.9876926 0.22262865 0.2025569 0.23691908 -1.2563046 -0.061145063 0.34938815 0.46969968
61 2.9405112 -1.1722277 2.4289608 -0.2351439 -0.41136608 -1.2064 -1.65244 -0.6964501 -1.1914098 -0.47517627
62 0.58163685 0.09562293 0.9998474 -1.3889544 0.22651702 -1.5595676 -2.778861 -0.17961584 0.115513735 -0.92993623
63 -0.07367293 -0.49384803 -0.61960685 2.1196756 0.695281 -0.044493787 0.31437716 0.25816998 1.3912674 0.18668151
64 -0.045883667 -1.5174831 1.4381849 0.26411182 -1.0093004 0.36982238 -0.48846975 0.23243716 -1.0126506 1.0352259
65 -0.066132866 0.37470886 -0.24496149 0.10496992 -0.37511727 -0.35537884 0.47331753 1.3589637 -1.3745868 -0.39256427
66 -1.3625991 -0.1773144 -0.3405634 0.6445554 -1.9286331 0.30526337 -0.5505088 0.41992003 -0.63646734 2.8330948
67 1.641547 -0.8351106 0.761973 1.8128835 0.76409215 1.5885147 0.048178717 -0.88893664 0.7428188 0.18242788
68 -0.69521147 -0.6953953 -1.1649162 -1.8317889 -1.8192278 -0.35492134 0.3330506 -1.1345011 0.6345078 0.66279966
69 0.92130935 -0.70482254 -0.36449376 -1.2980889 -0.18095271 -0.50375766 -1.2072248 0.49531415 0.5155281 -0.713969
70 -1.1443685 0.30682218 -0.13398038 -1.5704345 0.65534407 1.8186789 -0.52310413 -0.21481562 0.19666123 -0.21221647
71 -0.29045528 -0.74195635 -1.2504292 1.4280462 0.36562392 0.4857549 0.37924033 1.5575085 0.23292854 -1.4583619
72 0.2570194 1.1545771 0.15476002 0.6354275 -0.061175305 -1.9850829 -0.6149332 0.7004854 0.06773563 -0.8545203
73 0.13938142 -1.1038945 0.8586508 -1.0308598 -0.23612083 -0.509177 1.3379885 0.17473967 0.61827254 -0.8404287
74 -0.09203362 -0.67197496 -0.5243933 -2.301471 1.5874827 -0.12957801 -0.028272906 -0.55140245 -0.4644919 1.5799564
75 -0.024661276 0.48546255 -1.0752339 -1.4047197 -0.731829 -0.2671891 -0.1360742 -1.2583281 -2.0605047 0.81105435
76 -1.4919714 -0.16739784 0.33973697 -1.589882 -0.22831164 -0.18262564 -0.55389124 -1.2157748 -0.46629378 1.4314513
77 -1.3994683 -1.0051248 -0.7612161 -0.25787124 -2.5118327 -0.30556792 -0.3515716 -1.2018682 0.9510259 0.45846277
78 2.7212958 0.28421807 -1.3651786 -0.063664064 -1.9210697 0.85156554 1.7393678 -0.5169936 -0.41350004 0.42607796
79 1.1053438 0.6767049 1.1275835 0.2168055 0.42875332 -0.26722607 1.15775 -0.884286 -1.9693182 -1.075682
80 -1.1352683 -1.1780493 0.4218943 0.28551584 -0.5588076 0.5625349 0.39342758 2.560685 0.24870923 0.34321737
81 3.6316912 0.3572775 -1.0156463 -0.28435665 -0.10664498 -0.6880582 0.21404503 -0.106522694 -0.76077336 -0.74315256
82 -1.3635342 -0.008209946 -0.7686408 0.112779714 -0.44568494 -0.9469651 -0.39908487 0.51599497 0.39617717 1.2260296
83 -0.49727112 0.12265539 -0.6622279 -0.07675175 0.014897094 -0.040009785 -0.4248858 -2.645143 1.1044565 -0.331189
84 0.37596625 0.59452724 2.794341 0.8930068 1.0559101 -0.7241071 -0.43944934 -0.9313081 0.61684567 -0.5581257
85 -0.6078452 0.35858434 0.63668036 0.72884446 -1.5124643 -1.6761867 0.08271872 1.1635028 -0.2529628 0.621359
86 0.547509 -1.3350152 -0.54001033 -0.42007074 0.36049566 -0.5910068 0.32524258 0.16719119 -1.5444281 -1.3979179
87 -0.6870836 -0.29142705 2.7311025 0.22110832 0.8462722 1.225085 0.9139973 0.13090874 0.08731346 1.0134956
88 1.3885657 1.1443062 -0.993111 -0.032043725 0.37509763 -0.445464 0.092325285 2.215103 -0.83024406 1.3903357
89 -1.0765822 0.5809457 0.018075483 0.8340963 -0.7825743 -0.33743694 -0.04840281 0.23136228 0.5244316 1.2078037
90 -2.3786924 -0.27618435 0.25731692 -1.0614176 -0.4500899 -0.37038463 -1.0693009 2.2915668 0.39463672 -0.4461302
91 -0.9805698 -1.4103469 1.5193099 -1.9268708 0.20458232 -0.11356239 -0.95909286 -0.48508382 2.7654827 2.2324488
92 -0.3394773 -0.33708706 0.4055156 -0.07565354 1.5382979 -1.3291453 0.7449802 0.5599298 -0.25460395 0.5363708
93 0.12920006 -0.2216447 0.1936741 0.0009960126 -1.4277936 1.3171498 0.15734649 0.5427535 -1.7792691 0.52987134
94 -0.2086125 0.59766597 -0.0323411 -0.61969316 1.458962 0.058072425 0.93020695 1.5624226 -1.5723201 0.40208125
95 -0.8699294 0.4336411 -0.75269026 -0.08317343 0.2808062 1.216717 -0.11848135 0.166229 0.6732844 0.16950962
96 -0.6614274 -1.4229563 -0.45918527 -1.1708078 1.4827288 -2.2588537 -0.7837258 -1.2740921 -0.015317971 -0.75515723
97 1.0131963 1.803364 0.8055514 -1.37516 0.7291963 0.22718073 -0.8409336 0.7836632 1.2179495 -1.2799752
98 1.9370371 -0.21004716 -0.3780266 -0.8271802 -0.34660113 -0.38224182 0.62683856 -1.5396879 1.4074024 -0.14563857
99 1.6972247 -0.12429113 0.49359056 -0.682867 -1.2643232 0.22537437 -0.23601143 0.67839605 -1.4999667 -0.84806806
